Language model created by QuickLM on Fri Mar 11 19:54:35 EST 2016
Copyright (c) 1996-2010 Carnegie Mellon University and Alexander I. Rudnicky

The model is in standard ARPA format, designed by Doug Paul while he was at MITRE.

The code that was used to produce this language model is available in Open Source.
Please visit http://www.speech.cs.cmu.edu/tools/ for more information

The (fixed) discount mass is 0.5. The backoffs are computed using the ratio method.
This model based on a corpus of 15 sentences and 17 words

\data\
ngram 1=17
ngram 2=30
ngram 3=15

\1-grams:
-0.7782 </s> -0.3010
-0.7782 <s> -0.2218
-1.9542 CAT -0.2218
-1.9542 CHEETAH -0.2218
-1.9542 CRICKET -0.2218
-1.9542 DOG -0.2218
-1.9542 ELEPHANT -0.2218
-1.9542 FISH -0.2218
-1.9542 HIPPOPOTAMUS -0.2218
-1.9542 LION -0.2218
-1.9542 MONKEY -0.2218
-1.9542 PENGUIN -0.2218
-1.9542 RHINOCEROS -0.2218
-1.9542 SNAKE -0.2218
-1.9542 SPIDER -0.2218
-1.9542 TIGER -0.2218
-1.9542 TURTLE -0.2218

\2-grams:
-1.4771 <s> CAT 0.0000
-1.4771 <s> CHEETAH 0.0000
-1.4771 <s> CRICKET 0.0000
-1.4771 <s> DOG 0.0000
-1.4771 <s> ELEPHANT 0.0000
-1.4771 <s> FISH 0.0000
-1.4771 <s> HIPPOPOTAMUS 0.0000
-1.4771 <s> LION 0.0000
-1.4771 <s> MONKEY 0.0000
-1.4771 <s> PENGUIN 0.0000
-1.4771 <s> RHINOCEROS 0.0000
-1.4771 <s> SNAKE 0.0000
-1.4771 <s> SPIDER 0.0000
-1.4771 <s> TIGER 0.0000
-1.4771 <s> TURTLE 0.0000
-0.3010 CAT </s> -0.3010
-0.3010 CHEETAH </s> -0.3010
-0.3010 CRICKET </s> -0.3010
-0.3010 DOG </s> -0.3010
-0.3010 ELEPHANT </s> -0.3010
-0.3010 FISH </s> -0.3010
-0.3010 HIPPOPOTAMUS </s> -0.3010
-0.3010 LION </s> -0.3010
-0.3010 MONKEY </s> -0.3010
-0.3010 PENGUIN </s> -0.3010
-0.3010 RHINOCEROS </s> -0.3010
-0.3010 SNAKE </s> -0.3010
-0.3010 SPIDER </s> -0.3010
-0.3010 TIGER </s> -0.3010
-0.3010 TURTLE </s> -0.3010

\3-grams:
-0.3010 <s> CAT </s>
-0.3010 <s> CHEETAH </s>
-0.3010 <s> CRICKET </s>
-0.3010 <s> DOG </s>
-0.3010 <s> ELEPHANT </s>
-0.3010 <s> FISH </s>
-0.3010 <s> HIPPOPOTAMUS </s>
-0.3010 <s> LION </s>
-0.3010 <s> MONKEY </s>
-0.3010 <s> PENGUIN </s>
-0.3010 <s> RHINOCEROS </s>
-0.3010 <s> SNAKE </s>
-0.3010 <s> SPIDER </s>
-0.3010 <s> TIGER </s>
-0.3010 <s> TURTLE </s>

\end\
